digraph Tree {
node [shape=box, style="rounded", color="black", fontname=helvetica] ;
edge [fontname=helvetica] ;
0 [label="temp_1 <= 59.5\nmse = 133.1\nsamples = 169\nvalue = 63.1"] ;
1 [label="average <= 46.9\nmse = 42.7\nsamples = 67\nvalue = 51.9"] ;
0 -> 1 [labeldistance=2.5, labelangle=45, headlabel="True"] ;
2 [label="average <= 46.4\nmse = 14.1\nsamples = 17\nvalue = 42.8"] ;
1 -> 2 ;
3 [label="mse = 10.7\nsamples = 13\nvalue = 41.8"] ;
2 -> 3 ;
4 [label="mse = 4.2\nsamples = 4\nvalue = 47.5"] ;
2 -> 4 ;
5 [label="average <= 50.6\nmse = 19.1\nsamples = 50\nvalue = 54.6"] ;
1 -> 5 ;
6 [label="mse = 7.6\nsamples = 28\nvalue = 51.9"] ;
5 -> 6 ;
7 [label="mse = 12.7\nsamples = 22\nvalue = 58.0"] ;
5 -> 7 ;
8 [label="temp_1 <= 66.5\nmse = 51.5\nsamples = 102\nvalue = 70.7"] ;
0 -> 8 [labeldistance=2.5, labelangle=-45, headlabel="False"] ;
9 [label="friend <= 54.0\nmse = 19.2\nsamples = 32\nvalue = 62.9"] ;
8 -> 9 ;
10 [label="mse = 6.4\nsamples = 12\nvalue = 59.4"] ;
9 -> 10 ;
11 [label="mse = 15.0\nsamples = 20\nvalue = 65.0"] ;
9 -> 11 ;
12 [label="forecast_under <= 76.5\nmse = 31.8\nsamples = 70\nvalue = 73.7"] ;
8 -> 12 ;
13 [label="mse = 26.9\nsamples = 54\nvalue = 72.2"] ;
12 -> 13 ;
14 [label="mse = 19.8\nsamples = 16\nvalue = 78.3"] ;
12 -> 14 ;
}